{"proj_model/dense_layer1/kernel:0": [[-0.16084155440330505, -0.09909126907587051, 0.09815098345279694, 0.15861937403678894, -0.35222646594047546, 0.1975833624601364, 0.06551229953765869, 0.28658175468444824, -0.1726810485124588, 0.15159082412719727, 0.11789360642433167, 0.22720010578632355, -0.0971587672829628, -0.18770147860050201, -0.10335837304592133, -0.20209896564483643, -0.07359418272972107, 0.12910613417625427, -0.09136415272951126, 0.019602034240961075, 0.2783588767051697, -0.12981592118740082, 0.06528300046920776, 0.030491316691040993, 0.005660747177898884, 0.17282842099666595, -0.1157040223479271, 0.2614763379096985, 0.18507280945777893, 0.21028810739517212, -0.10587135702371597, -0.04791872575879097, 0.1730649620294571, -0.21031998097896576, -0.022938525304198265, 0.0013407766819000244, 0.07970315217971802, -0.14014586806297302, -0.07515065371990204, 0.05512181669473648, -0.007376638241112232, 0.0031284301076084375, 0.019157884642481804, 0.14019356667995453, 0.04489555582404137, 0.07447241991758347, 0.1337394267320633, -0.06822872906923294, 0.06449882686138153, 0.1855907440185547, 0.1956958919763565, -0.24590224027633667, 0.05804261565208435, 0.12760278582572937, 0.12143944948911667, 0.1089208722114563, -0.05126520246267319, -0.08826451003551483, -0.10170037299394608, 0.21661309897899628, 0.2174602448940277, -0.19669760763645172, -0.11265651136636734, -0.18739767372608185, -0.2740684449672699, 0.2585050165653229, 0.13329751789569855, 0.6279237270355225, -0.1597701758146286, -0.18136553466320038, -0.1271599531173706, -0.08811654895544052, 0.1779613196849823, -0.21200092136859894, 0.09768708795309067, -0.04752718284726143, -0.19695982336997986, 0.14640209078788757, 0.20013359189033508, -0.13082639873027802, -0.1268390715122223, -0.1444685459136963, 0.33470940589904785, -0.0856025218963623, 0.09703332930803299, -0.0298595167696476, -0.06718696653842926, 0.030042516067624092, -0.23068708181381226, 0.1388210952281952, 0.01685464195907116, 0.13212844729423523, 0.1002834215760231, 0.1370684802532196, 0.07820431143045425, 0.010579747147858143, -0.15656307339668274, 0.30108797550201416, -0.11106835305690765, 0.11748486757278442], [0.13954539597034454, 0.2463374137878418, 0.0382474884390831, 0.0034354429226368666, 0.22690539062023163, -0.02527855895459652, -0.2590855658054352, -0.3092263340950012, 0.04436171054840088, 0.11533649265766144, 0.08232201635837555, -0.3012649714946747, 0.24848730862140656, -0.17556816339492798, -0.1544140726327896, 0.1835065484046936, 0.4034499228000641, 0.14503978192806244, -0.6369978785514832, -0.06459371000528336, -0.6116279363632202, 0.2219923585653305, 0.09602386504411697, -0.07918030023574829, -0.08153045177459717, 0.2958512604236603, -0.14179754257202148, 0.14166061580181122, -0.24061810970306396, -0.13672910630702972, 0.19804537296295166, -0.020016107708215714, 0.050315141677856445, 0.21891891956329346, 0.18153242766857147, -0.1705387681722641, 0.3473367393016815, 0.0012795570073649287, 0.452847957611084, 0.2841370105743408, -0.36023566126823425, -0.16503344476222992, -0.21455605328083038, 0.02321612276136875, 0.33763229846954346, -0.4135180115699768, 0.24703797698020935, -0.10865485668182373, 0.2527344524860382, 0.3078095614910126, -0.34665393829345703, 0.31397131085395813, -0.24876104295253754, 0.021825380623340607, -0.19736897945404053, -0.22318439185619354, 0.2541794776916504, 0.20648683607578278, -0.053393617272377014, 0.19127443432807922, -0.1413266956806183, 0.39261341094970703, -0.14073650538921356, -0.20714543759822845, 0.049315452575683594, 0.1749979555606842, -0.17734117805957794, -0.38399359583854675, 0.39832329750061035, -0.06114703416824341, -0.1579628884792328, 0.42916014790534973, -0.12153979390859604, 0.021856827661395073, 0.1484178751707077, -0.3103230595588684, 0.012262865900993347, 0.14317171275615692, -0.04945356398820877, 0.19549013674259186, 0.23780016601085663, 0.06818018853664398, 0.1334596574306488, 0.15367896854877472, -0.21506166458129883, 0.13910682499408722, 0.24203230440616608, 0.24287958443164825, 0.14581920206546783, 0.24745449423789978, 0.05001973733305931, 0.18491080403327942, 0.3079044222831726, -0.17623886466026306, 0.29130804538726807, -0.16332848370075226, -0.10220938920974731, -0.25944122672080994, -0.02192901074886322, 0.5758078694343567], [-0.22427013516426086, 0.20530468225479126, 0.154617577791214, -0.08501795679330826, 0.26248422265052795, 0.05776180326938629, -0.15762516856193542, -0.11425060778856277, 0.2783890664577484, -0.07440807670354843, -0.03682979568839073, -0.14803460240364075, 0.10856429487466812, 0.07681550085544586, -0.33718112111091614, 0.2948240041732788, -0.001732517615891993, 0.2380037158727646, -0.416532039642334, -0.1991434544324875, -0.38852614164352417, 0.11388370394706726, 0.28499749302864075, -0.19637097418308258, -0.2023361623287201, 0.05635124444961548, 0.047452911734580994, -0.1086067482829094, -0.006797379348427057, 0.06961636245250702, -0.2012731432914734, 0.31234386563301086, 0.11914968490600586, -0.1332148015499115, 0.12441108375787735, -0.11984920501708984, 0.05721934884786606, 0.10748592764139175, 0.20538823306560516, -0.08350104093551636, -0.0830884799361229, -0.03665165603160858, -0.29281488060951233, 0.28397437930107117, 0.22214412689208984, -0.1414998471736908, 0.2121278941631317, 0.10545137524604797, 0.1708027422428131, 0.017646463587880135, -0.21840372681617737, 0.2838280200958252, -0.25960320234298706, 0.028863172978162766, 0.013077134266495705, -0.04593411087989807, 0.01098992582410574, -0.18371984362602234, -0.25819310545921326, -0.10057619959115982, -0.19090233743190765, 0.3289921283721924, -0.10954991728067398, 0.17807625234127045, 0.12810350954532623, 0.30380070209503174, -0.016674503684043884, -0.4540986716747284, 0.2825908660888672, 0.2032262682914734, -0.10529889166355133, 0.09445114433765411, -0.1403665691614151, 0.0463036485016346, 0.3535725772380829, -0.20737168192863464, 0.1493067890405655, -0.06635593622922897, 0.14911535382270813, -0.16184954345226288, 0.068839430809021, -0.06755192577838898, 0.41955867409706116, -0.1987365186214447, -0.10260296612977982, 0.36462002992630005, 0.25889724493026733, 0.13662585616111755, -0.15197545289993286, 0.2680644094944, 0.03812301158905029, 0.08521236479282379, 0.1917913258075714, -0.018944095820188522, 0.1042732298374176, -0.3773903548717499, 0.1545795053243637, 0.06425817310810089, -0.1764458417892456, 0.3291921317577362], [0.004025548696517944, 0.1850457340478897, -0.04302994906902313, 0.20953944325447083, 0.2237613946199417, 0.10978931188583374, -0.2279960662126541, -0.004520182963460684, -0.17760694026947021, 0.3019188344478607, 0.1783817857503891, 0.27892622351646423, 0.21884679794311523, -0.09237399697303772, -0.07299675047397614, 0.27382710576057434, 0.2939895987510681, -0.05843018367886543, 0.06150374189019203, -0.023725029081106186, 0.08059383183717728, 0.11012820899486542, 0.09557290375232697, 0.08938734978437424, -0.2118579000234604, 0.05585368350148201, -0.02350512146949768, -0.10296289622783661, -0.0011734450235962868, 0.12987329065799713, -0.07335035502910614, -0.08145679533481598, -0.10070901364088058, 0.18893899023532867, -0.11749181896448135, -0.2134411633014679, 0.04775608330965042, -0.19252774119377136, 0.5596003532409668, 0.24758470058441162, -0.07327435910701752, 0.07439593225717545, 0.09487110376358032, 0.01703735999763012, -0.04506036639213562, 0.154710590839386, -0.04316653683781624, 0.1910243183374405, -0.007371495012193918, 0.13701309263706207, -0.002163846045732498, -0.06668847054243088, -0.0022386834025382996, -0.007372982334345579, 0.15422138571739197, -0.11999742686748505, 0.03613277152180672, -0.08927726745605469, -0.09747578203678131, 0.05761127546429634, -0.048136696219444275, -0.1643332540988922, -0.206473246216774, 0.18285858631134033, 0.5286476612091064, 0.12231480330228806, 0.07530533522367477, -0.24560275673866272, -0.20613189041614532, -0.1303965300321579, 0.01304374635219574, 0.2929995357990265, 0.2120952159166336, 0.043837692588567734, 0.07690072059631348, 0.17568261921405792, -0.059986650943756104, 0.20037272572517395, -0.09363506734371185, -0.010208971798419952, 0.041274361312389374, -0.12169424444437027, 0.03067192994058132, -0.11572438478469849, 0.032384950667619705, -0.035190630704164505, -0.20812062919139862, 0.08639535307884216, -0.020153000950813293, 0.28074535727500916, 0.034445539116859436, 0.15391336381435394, 0.046588264405727386, -0.059158388525247574, 0.019714735448360443, 0.09861258417367935, -0.11050587892532349, 0.24631717801094055, -0.0634872317314148, -0.23182189464569092], [-0.19570821523666382, 0.044053297489881516, 0.24885067343711853, -0.08454770594835281, 0.14403019845485687, 0.16859787702560425, 0.035554368048906326, -0.036353401839733124, 0.04839826375246048, 0.23711079359054565, -0.1936742514371872, -0.06732041388750076, 0.0036643515340983868, -0.008089393377304077, 0.06332262605428696, 0.08699426800012589, -0.07141613215208054, 0.034943558275699615, 0.5291448831558228, 0.057491451501846313, 0.25066429376602173, 0.050681810826063156, 0.05445367097854614, 0.28690972924232483, 0.08277703076601028, 0.012037115171551704, -0.013212144374847412, -0.24469953775405884, -0.047628507018089294, 0.03475924953818321, -0.23442204296588898, 0.17836199700832367, 0.2335420399904251, 0.271392822265625, 0.14678913354873657, -0.13809862732887268, 0.0935092344880104, 0.002602897584438324, 0.009306544438004494, 0.2962070107460022, 0.16173771023750305, 0.21549519896507263, 0.013071485795080662, 0.12796145677566528, 0.14997820556163788, 0.28230732679367065, 0.17969168722629547, -0.2376389503479004, 0.08184733241796494, 0.2033098042011261, 0.0655953511595726, 0.26911604404449463, 0.03829161450266838, -0.3176165223121643, 0.032496701925992966, -0.23293504118919373, 0.28483614325523376, 0.03450775891542435, -0.14961126446723938, 0.11980213224887848, 0.2753923833370209, 0.3052400052547455, 0.10123993456363678, -0.05899365618824959, -0.03617861121892929, -0.14250583946704865, -0.15401238203048706, -0.48051080107688904, 0.41534852981567383, -0.12753000855445862, -0.1795167326927185, 0.05925681069493294, 0.11766422539949417, 0.20383213460445404, -0.08981392532587051, -0.08510264754295349, -0.1419447511434555, 0.2196660190820694, -0.12304792553186417, -0.0041147517040371895, 0.17646096646785736, -0.03815974295139313, -0.8252465724945068, -0.027510598301887512, 0.009815439581871033, 0.3481845259666443, 0.11170563846826553, -0.6885499954223633, -0.21638686954975128, 0.1609131097793579, -0.058068759739398956, -0.03826068714261055, -0.07239004224538803, 0.07977577298879623, -0.5003442168235779, 0.24913008511066437, -0.08466380834579468, 0.020350633189082146, -0.10457766056060791, -0.6115099787712097], [0.023818477988243103, 0.004546009469777346, 0.2532314658164978, -0.1272335946559906, 0.04996993765234947, -0.030563613399863243, -0.13771596550941467, 0.027398284524679184, 0.2441219836473465, -0.10440007597208023, -0.3729139268398285, 0.04619650915265083, 0.277855783700943, -0.06984435021877289, 0.3219657242298126, -0.03130151331424713, 0.03350578993558884, 0.02035665698349476, 0.13005277514457703, 0.32889094948768616, 0.057526420801877975, 0.12021076679229736, -0.009181167930364609, 0.1955782026052475, -0.2628469467163086, 0.0190901979804039, 0.006712093949317932, 0.2573554813861847, 0.09485685080289841, -0.048739444464445114, 0.0764705091714859, 0.1408718079328537, -0.2366051822900772, 0.09796644002199173, 0.14919373393058777, -0.05046306550502777, 0.10009407252073288, -0.05670027434825897, -0.23050984740257263, -0.12427893280982971, 0.36809518933296204, 0.1517709642648697, 0.201834574341774, 0.24081453680992126, -0.022680414840579033, -0.21391618251800537, 0.1768953651189804, -0.14023475348949432, 0.30686384439468384, -0.16060200333595276, 0.19244611263275146, -0.02822636440396309, -0.06714079529047012, 0.1883365362882614, 0.017009781673550606, -0.036693282425403595, -0.10977882891893387, -0.0017485573189333081, 0.06500401347875595, -0.1711733490228653, -0.18113484978675842, 0.01373740378767252, -0.15538138151168823, -0.15167899429798126, 0.09550133347511292, 0.18374276161193848, -0.02815879136323929, -0.1457064002752304, -0.07624764740467072, -0.01251654326915741, 0.031742677092552185, -0.059483882039785385, 0.05036456137895584, 0.27456435561180115, 0.11133000254631042, 0.29011431336402893, -0.06885543465614319, 0.0755220353603363, 0.32147613167762756, 0.04283324256539345, 0.10922613739967346, -0.05042217671871185, -0.18871532380580902, 0.005504727363586426, 0.17230120301246643, -0.1553022712469101, 0.26111504435539246, 0.04306824505329132, 0.09418416023254395, -0.07948984950780869, 0.13579526543617249, 0.26720064878463745, -0.001405920833349228, -0.13870668411254883, -0.04903510957956314, 0.057538729161024094, 0.015965506434440613, -0.2344425767660141, -0.15761318802833557, 0.03929818794131279]], "proj_model/dense_layer1/bias:0": [0.0, 0.07082045823335648, 0.03250214830040932, 0.0494646355509758, -0.17065905034542084, 0.01170221995562315, -0.052437517791986465, 0.15052558481693268, 0.026858525350689888, 0.02568923495709896, -0.0754297599196434, 0.11271821707487106, 0.07126040756702423, 0.0, -0.014812253415584564, -0.02305346168577671, 0.09053787589073181, 0.02516954578459263, 0.052817098796367645, -0.02359737455844879, 0.12081970274448395, -0.005648721940815449, 0.030961735174059868, -0.002272812183946371, -0.07584387063980103, 0.011313894763588905, 0.0, 0.19530533254146576, -0.05160921812057495, -0.02516871504485607, -0.028804544359445572, -0.10429003834724426, -0.04553581029176712, -0.07056085765361786, -0.034170929342508316, 0.0, -0.02038145437836647, -0.010492892004549503, -0.219511017203331, -0.02531292848289013, 0.06424286216497421, -0.002812950871884823, 0.11992299556732178, 0.019246967509388924, 0.12485678493976593, 0.016063760966062546, 0.031702544540166855, -0.05325816944241524, 0.036467887461185455, 0.018879445269703865, 0.09014298766851425, -0.08903824537992477, -0.04625910893082619, 0.10853207111358643, 0.0232782494276762, -0.04834941402077675, -0.028077250346541405, -0.024014445021748543, -0.030900662764906883, -0.014517578296363354, 0.016535619273781776, 0.014436636120080948, -0.04598052054643631, -0.02832242101430893, -0.2088683843612671, 0.05218559131026268, -0.03924533724784851, 0.3493313789367676, -0.19076240062713623, -0.0060043660923838615, 0.0, 0.07167178392410278, -0.0016723624430596828, -0.04254899546504021, 0.09963316470384598, 0.06509974598884583, 0.0, -0.015384696424007416, 0.06804776191711426, -0.026656216010451317, -0.0004332556272856891, 0.0, 0.2391408234834671, 0.0, -0.07355228811502457, -0.17206275463104248, -0.047147609293460846, 0.02495552971959114, -0.0059829228557646275, 0.01220758631825447, -0.05860051140189171, 0.060899365693330765, 0.03311830013990402, -0.0654049888253212, -0.01547861099243164, 0.05419842153787613, 0.0, 0.08701734989881516, 0.0, 0.020451799035072327], "proj_model/dense_layer2/kernel:0": [[-0.027276068925857544, -0.19543495774269104, 0.19353261590003967], [0.12885932624340057, 0.3669891953468323, 0.37786585092544556], [0.057246770709753036, 0.1316235512495041, 0.2645081579685211], [0.27614954113960266, -0.046604570001363754, -0.22182819247245789], [0.5895997881889343, 0.06582508236169815, 0.47151994705200195], [0.242136150598526, 0.09942802786827087, -0.06904616951942444], [-0.0930495634675026, 0.05656951293349266, 0.1733378916978836], [-0.3938927948474884, -0.35446059703826904, -0.22128048539161682], [-0.2758367359638214, 0.3304716646671295, 0.02807161957025528], [0.16036546230316162, -0.044818613678216934, 0.16786466538906097], [-0.03550812229514122, -0.16518963873386383, -0.19049975275993347], [0.19445326924324036, -0.27959010004997253, -0.2981811761856079], [0.11834865808486938, 0.1867741346359253, 0.18512916564941406], [-0.20973868668079376, -0.10414023697376251, -0.013816967606544495], [-0.13238976895809174, -0.07340633869171143, -0.32688161730766296], [0.24022401869297028, 0.17931972444057465, 0.3369995057582855], [0.19032488763332367, -0.15099726617336273, 0.3527112305164337], [0.20434093475341797, 0.33028459548950195, 0.22007563710212708], [-0.3309509754180908, -0.451826274394989, -0.13557924330234528], [0.3452863395214081, -0.022872712463140488, -0.3426687717437744], [-0.4847548007965088, -0.29931581020355225, -0.4674657881259918], [-0.03125669062137604, 0.2975788116455078, -0.08359028398990631], [0.038894619792699814, 0.21974796056747437, 0.22286735475063324], [0.46303224563598633, 0.08780311048030853, -0.24905334413051605], [-0.06597316265106201, -0.012568855658173561, 0.16440725326538086], [-0.0014261292526498437, 0.3499756455421448, 0.21241600811481476], [-0.006264597177505493, 0.05967944860458374, -0.1775008589029312], [-0.39156144857406616, -0.27910083532333374, 0.06474018096923828], [-0.055599700659513474, 0.1262790709733963, -0.15118497610092163], [0.04401037096977234, -0.15392403304576874, -0.21426589787006378], [0.037970539182424545, -0.20489248633384705, -0.028439925983548164], [-0.018511319532990456, 0.29553499817848206, 0.16537493467330933], [0.1573256105184555, -0.07319466769695282, -0.05126143619418144], [0.24669580161571503, 0.035357747226953506, 0.19271576404571533], [-0.11379778385162354, 0.05199739336967468, 0.1019434928894043], [-0.044489264488220215, 0.21434274315834045, -0.14181432127952576], [-0.09974135458469391, 0.3056008815765381, 0.11446767300367355], [0.1468215435743332, -0.1801353543996811, 0.13852353394031525], [1.04526686668396, -0.08440647274255753, -0.21413472294807434], [0.2613324820995331, 0.11270478367805481, -0.14004316926002502], [0.373928964138031, -0.31537044048309326, -0.4276198744773865], [0.4215439260005951, 0.06604737788438797, -0.29056546092033386], [0.10384377092123032, -0.30900612473487854, -0.3639774024486542], [0.09624859690666199, 0.3350593149662018, 0.2349044680595398], [0.013063408434391022, 0.4358326494693756, 0.4911900460720062], [-0.3488874137401581, -0.5091400146484375, -0.07454618066549301], [0.1747766137123108, 0.09497299790382385, 0.35504528880119324], [-0.06597275286912918, 0.14685821533203125, -0.06567719578742981], [0.08230607211589813, 0.08739057183265686, 0.33025091886520386], [0.27864062786102295, 0.20099285244941711, 0.20115546882152557], [0.16523480415344238, -0.19516156613826752, -0.3964358866214752], [0.41801631450653076, 0.3945651650428772, 0.3819149136543274], [-0.16316181421279907, 0.1988692581653595, 0.10845500975847244], [-0.05844166502356529, -0.3849467933177948, 0.2321038395166397], [0.09424470365047455, -0.14086173474788666, -0.2338171899318695], [-0.09388239681720734, 0.033052727580070496, 0.044488802552223206], [0.26433175802230835, 0.30440545082092285, 0.27374526858329773], [-0.10899484902620316, -0.12648724019527435, 0.028682252392172813], [-0.09440203011035919, 0.19726651906967163, 0.18724262714385986], [-0.025846833363175392, 0.07885368913412094, -0.16855944693088531], [-0.14319458603858948, -0.35520994663238525, 0.017540454864501953], [-0.22554144263267517, 0.36444291472435, 0.3410216271877289], [-0.09264270961284637, 0.17713536322116852, -0.012757767923176289], [-0.03215303272008896, -0.12995818257331848, -0.3263833820819855], [1.158827304840088, -0.3667955696582794, -0.18522046506404877], [-0.16565102338790894, 0.1465929001569748, 0.26414793729782104], [-0.23975344002246857, -0.11627316474914551, 0.022766703739762306], [1.0341707468032837, 0.45623740553855896, -0.003818140598013997], [0.3863231837749481, 0.31391727924346924, 0.03904924914240837], [-0.24119484424591064, -0.09957827627658844, 0.18872657418251038], [-0.22672785818576813, 0.19072046875953674, 0.0892724096775055], [0.34433460235595703, 0.2618732750415802, 0.21070346236228943], [0.25755825638771057, -0.11725852638483047, -0.08324922621250153], [0.2511417269706726, 0.07172945141792297, 0.22568725049495697], [-0.19432435929775238, 0.12123043090105057, 0.3792846202850342], [0.11911848187446594, -0.25778570771217346, -0.20154879987239838], [0.18968889117240906, 0.06978192925453186, -0.18875540792942047], [0.043147217482328415, 0.23003093898296356, 0.04850037023425102], [-0.044906992465257645, 0.041214719414711, 0.2284218668937683], [0.016599591821432114, 0.03333597630262375, -0.11293351650238037], [0.0913313552737236, 0.41022467613220215, 0.17955820262432098], [-0.0957297831773758, 0.04477417469024658, 0.14452612400054932], [-0.16729529201984406, -0.6607669591903687, -0.24603672325611115], [-0.13171041011810303, 0.16502556204795837, 0.14014729857444763], [-0.23199361562728882, 0.09360259771347046, -0.1922457218170166], [0.18474626541137695, 0.6149481534957886, -0.1433832347393036], [-0.04462173953652382, -0.0075035435147583485, 0.2548539936542511], [0.14011633396148682, -0.45000308752059937, 0.009521426633000374], [0.14532697200775146, 0.15541087090969086, -0.08683936297893524], [0.12203764915466309, 0.259992390871048, 0.1252375841140747], [-0.10393770784139633, -0.059500668197870255, -0.11465324461460114], [0.0012920255539938807, 0.19755911827087402, 0.19835849106311798], [0.24043650925159454, 0.212533637881279, 0.16503004729747772], [-0.07895022630691528, 0.0625360906124115, -0.0382385328412056], [0.33375492691993713, -0.4976353049278259, -0.22774246335029602], [-0.08949154615402222, -0.46747273206710815, -0.3821861445903778], [0.171529620885849, -0.16918057203292847, -0.15971654653549194], [0.1386760026216507, 0.01832025684416294, -0.27394452691078186], [0.12429553270339966, 0.1070074737071991, -0.027790457010269165], [-0.6253501176834106, -0.5872407555580139, -0.04353164881467819]], "proj_model/dense_layer2/bias:0": [0.019755853340029716, -0.013722599484026432, 0.03664712980389595]}