{"proj_model/dense_layer1/kernel:0": [[0.0313386395573616, -0.19790105521678925, -0.0687052458524704, 0.1821926236152649, 0.271881639957428, 0.12361449003219604, -0.2740050256252289, -0.6340860724449158, 0.11853636056184769, -0.6233793497085571, 0.05665408447384834, -0.18353761732578278, -0.2037118375301361, 0.13710248470306396, 0.11743433773517609, 0.02473136968910694, -0.2585205137729645, 0.10496268421411514, -0.2247295379638672, -0.20181353390216827, -0.03497698903083801, -0.18672017753124237, 0.16474564373493195, 0.1596779227256775, 0.15206341445446014, 0.2143183946609497, 0.18936407566070557, -0.15821626782417297, -0.17456120252609253, 0.1641087532043457, 0.08930354565382004, 0.012624229304492474, -0.24432723224163055, 0.10340836644172668, -0.2903555631637573, 0.19048640131950378, 0.11011238396167755, -0.4033410847187042, -0.20477762818336487, -0.030033767223358154, -0.04535151645541191, -0.15878121554851532, -0.027103720232844353, -0.18210111558437347, -0.10066147893667221, 0.05337133631110191, 0.2635073959827423, 0.175440713763237, 0.12203962355852127, 0.22719207406044006, 0.2524665296077728, 0.24770815670490265, -0.00041988378507085145, -0.1133330836892128, 0.09632141888141632, 0.08157415688037872, -0.029686912894248962, 0.21378594636917114, 0.08313064277172089, -0.08776175230741501, 0.2395441234111786, -0.2857317626476288, 0.2708124816417694, 0.19865845143795013, 0.11828960478305817, -0.06907312572002411, -0.016407746821641922, 0.17304158210754395, 0.08879446983337402, 0.3886665403842926, 0.26236119866371155, 0.31813934445381165, -0.21048006415367126, -0.15090729296207428, 0.20376995205879211, 0.24412183463573456, -0.3706381022930145, -0.12707901000976562, -0.10346466302871704, 0.18566562235355377, -0.08173878490924835, -0.12995672225952148, -0.013496414758265018, -0.1159949004650116, 0.14445999264717102, -0.08557912707328796, 0.04131659120321274, 0.1610146462917328, -0.2916277050971985, -0.21924640238285065, -0.3760623335838318, -0.12016163766384125, 0.26085934042930603, 0.031985554844141006, 0.02955055795609951, 0.3256734609603882, -0.24090833961963654, 0.1557893604040146, -0.2932063639163971, 0.31152936816215515], [0.005425260867923498, 0.5993363857269287, 0.0384150967001915, -0.054309867322444916, -0.15052486956119537, -0.2017962783575058, 0.1314021795988083, 0.21331851184368134, -0.2868228256702423, 0.15541449189186096, 0.12960268557071686, -0.25541719794273376, -0.06768658757209778, -0.002667871071025729, 0.324431836605072, -0.04593798890709877, -0.12668804824352264, -0.10355964303016663, -0.005555376410484314, -0.045938462018966675, 0.18844516575336456, 0.21116723120212555, 0.23973426222801208, 0.1754205822944641, 0.2781069874763489, -0.21163858473300934, -0.22189800441265106, -0.003989130258560181, -0.03200213611125946, 0.05029858648777008, 0.04372213035821915, 0.027094440534710884, -0.243512362241745, 0.04582594335079193, 0.0735236182808876, -0.32385459542274475, 0.06190786138176918, 0.1918620467185974, -0.028901681303977966, 0.1913241147994995, 0.5022424459457397, -0.09702461957931519, -0.26211100816726685, 0.042496636509895325, -0.30764222145080566, 0.3144190311431885, -0.15609107911586761, -0.10050926357507706, -0.02476351521909237, -0.059784915298223495, 0.2635916471481323, 0.2713357210159302, 0.3740464448928833, 0.6691948771476746, 0.6154281497001648, -0.14926357567310333, -0.21590778231620789, -0.1894153207540512, 0.40222886204719543, 0.3905361294746399, -0.05802202597260475, 0.021836141124367714, 0.09290241450071335, 0.06475981324911118, 0.020420482382178307, -0.09238357841968536, 0.548792839050293, -0.004867103416472673, -0.13237784802913666, -0.24638515710830688, -0.5485599637031555, 0.1184745654463768, 0.15454402565956116, -0.16296663880348206, -0.20442689955234528, -0.08857569098472595, -0.07984277606010437, -0.016675785183906555, -0.18059833347797394, -0.20650872588157654, 0.3318622410297394, 0.2043071687221527, 0.36066195368766785, 0.5968650579452515, 0.3166947364807129, -0.0005715767620131373, 0.053434669971466064, 0.23704011738300323, 0.14221425354480743, -0.9728312492370605, -0.5491032004356384, 0.03828828036785126, -0.02843315899372101, -0.2834555506706238, -0.02808544598519802, 0.7709212303161621, -0.011092658154666424, -0.20928427577018738, 0.356830894947052, -0.2578798234462738], [0.022869089618325233, 0.39551490545272827, 0.005882796831429005, -0.20601269602775574, 0.14592258632183075, 0.04147696495056152, 0.5435278415679932, 0.20220918953418732, -0.06919961422681808, 0.09663130342960358, -0.09347860515117645, -0.11582738161087036, 0.10120238363742828, 0.27644649147987366, -0.0180436410009861, 0.1185293048620224, 0.16084887087345123, 0.016564838588237762, -0.0943513810634613, 0.1938132494688034, -0.22565440833568573, 0.4257342219352722, -0.2770322561264038, 0.059408027678728104, -0.149343803524971, 0.3087484538555145, 0.10551497340202332, 0.14237885177135468, -0.21741238236427307, 0.16792000830173492, -0.07447073608636856, 0.039446521550416946, -0.004004432819783688, -0.14485026895999908, -0.24139951169490814, 0.36311325430870056, 0.20657576620578766, -0.12047406286001205, 0.014654800295829773, 0.46333539485931396, 0.306066632270813, -0.1667587161064148, -0.10511036962270737, 0.11171775311231613, -0.13967148959636688, 0.12579399347305298, -0.791361391544342, -0.21759279072284698, 0.37750595808029175, -0.04648986831307411, -0.1255764663219452, 0.006587133277207613, 0.4093037545681, 0.19231583178043365, 0.06015149876475334, -0.04559655115008354, 0.10783443599939346, -0.027965938672423363, -0.09694536030292511, 0.014322030358016491, -0.04793576896190643, 0.29610925912857056, 0.14723095297813416, 0.2565443813800812, -0.14125686883926392, 0.013499453663825989, 0.3787495791912079, -0.0693095475435257, 0.2398041933774948, 0.21466661989688873, -0.6587095260620117, -0.28955960273742676, -0.21370525658130646, 0.4176819324493408, 0.11382636427879333, -0.07857342064380646, 0.30922946333885193, 0.012083008885383606, -0.06818900257349014, 0.03610573709011078, 0.16711118817329407, 0.23484432697296143, 0.1420009881258011, 0.33784085512161255, 0.5515406727790833, 0.07032730430364609, -0.05617130175232887, -0.15476369857788086, 0.25336894392967224, -0.08142279088497162, 0.5606852173805237, -0.06995314359664917, -0.4254436194896698, 0.13142803311347961, -0.09527206420898438, 0.3956954777240753, -0.04843968525528908, 0.2511958181858063, 0.17106956243515015, -0.038165368139743805], [0.22557488083839417, -0.008014478720724583, -0.15699619054794312, 0.007683391682803631, 0.24925120174884796, 0.03369720280170441, 0.0006884409231133759, -0.009677555412054062, 0.09312888234853745, -0.004570645280182362, 0.15949028730392456, 0.14338038861751556, -0.17446261644363403, -0.09998561441898346, 0.17272816598415375, -0.04594578221440315, -0.05131106078624725, -0.15638509392738342, -0.18906953930854797, -0.21987003087997437, -0.07422073185443878, -0.01137960609048605, -0.21335871517658234, 0.09297443181276321, -0.050682827830314636, 0.19866059720516205, -0.020572422072291374, -0.17715799808502197, 0.05833519995212555, 0.21118946373462677, 0.17258867621421814, 0.11054464429616928, 0.013140229508280754, -0.07916079461574554, 0.12357401102781296, -0.1659628003835678, -0.10813651233911514, 0.3152221143245697, -0.02912682294845581, -4.6742294216528535e-05, 0.1252828985452652, 0.09233568608760834, 0.19552773237228394, 0.1671278178691864, 0.04789729788899422, 0.18081700801849365, 0.06801511347293854, 0.011748970486223698, 0.05495564267039299, 0.33778733015060425, 0.06565727293491364, -0.08276926726102829, 0.26851746439933777, -0.002085377462208271, 0.11218981444835663, 0.1876191645860672, 0.00905807875096798, 0.05697348713874817, 0.005012528970837593, 0.09899228066205978, 0.12781892716884613, -0.40643173456192017, 0.22275936603546143, -0.0008191277738660574, -0.28466904163360596, -0.16307333111763, 0.13805142045021057, -0.35504233837127686, -0.10591048002243042, 0.027507973834872246, -0.03575889393687248, 0.21011649072170258, -0.0934680923819542, -0.24814479053020477, 0.21281473338603973, -0.10354118049144745, -0.02590051107108593, -0.0352618545293808, -0.14195673167705536, 0.1619797945022583, 0.16369059681892395, 0.0073105935007333755, -0.030609333887696266, -0.06035584211349487, -0.06031164526939392, -0.16863355040550232, -0.16251137852668762, -0.07299665361642838, 0.0004976605996489525, 0.16320466995239258, -0.00039885641308501363, -0.17217257618904114, -0.23546770215034485, 0.1628163754940033, 0.2514030635356903, -0.015144272707402706, -0.010870636440813541, -0.18069055676460266, -0.07986336201429367, -0.05819842591881752], [-0.248510479927063, 0.391971230506897, -0.09629608690738678, 0.00036986308987252414, 0.06322260946035385, 0.07551997900009155, 0.28766676783561707, 0.29725679755210876, 0.07151387631893158, 0.00584146985784173, 0.18303799629211426, -0.0876903235912323, 0.040049389004707336, 0.19461289048194885, -0.13442015647888184, -0.17306780815124512, -0.10271237045526505, 0.051474153995513916, 0.0035027265548706055, -0.18088892102241516, -0.229277566075325, -0.6300325989723206, 0.0710698738694191, -0.1923193782567978, 0.22697322070598602, -0.017747126519680023, -0.049871787428855896, -0.08383245766162872, -0.08641429245471954, -0.03232784941792488, -0.4980202317237854, 0.19487066566944122, 0.1427396833896637, -0.16077885031700134, 0.10983302444219589, -0.16707618534564972, 0.23732751607894897, -0.04409511387348175, -0.0357474684715271, -0.15616533160209656, 0.020902231335639954, -0.21077947318553925, -0.006460568401962519, -0.04490825906395912, 0.18457384407520294, -0.0673760399222374, -0.3966590464115143, -0.13372841477394104, -0.034090619534254074, -0.12721669673919678, 0.15775485336780548, 0.109334297478199, 0.026263561099767685, -0.019238784909248352, 0.05324084684252739, -0.10467609763145447, -0.1983741670846939, -0.018088893964886665, 0.007568810135126114, 0.2479652613401413, 0.17558297514915466, -0.21415160596370697, 0.03332313522696495, -0.18141834437847137, 0.012752678245306015, -0.20464080572128296, -0.07840969413518906, -0.009308886714279652, -0.03484244644641876, 0.03739319369196892, 0.19335941970348358, 0.12856285274028778, 0.18366849422454834, 0.12304095178842545, 0.01645898073911667, -0.04795895516872406, 0.0006545634241774678, -0.1617611050605774, 0.25458887219429016, 0.15336692333221436, 0.23532141745090485, 0.3020881712436676, 0.06054899841547012, -0.46669894456863403, -0.11959206312894821, -0.12087901681661606, -0.039348017424345016, 0.047584567219018936, 0.0005378187051974237, 0.195234477519989, 0.1803063005208969, -0.03240169584751129, 0.06433171778917313, -0.017562493681907654, -0.13233371078968048, -0.1790160983800888, 0.10643788427114487, -0.11644037812948227, 0.16884076595306396, -0.11799698323011398], [-0.2561686336994171, 0.02248729020357132, 0.2563643157482147, -0.0014352984726428986, -0.1407785415649414, 0.02740086428821087, 0.0019437763839960098, 0.001571726519614458, 0.027238992974162102, 0.09218688309192657, -0.07070153206586838, -0.21945159137248993, -0.08521737158298492, -0.026241496205329895, 0.053591758012771606, 0.17085689306259155, 0.20402224361896515, 0.18840236961841583, -0.20281992852687836, -0.07512092590332031, -0.12797433137893677, 0.11922698467969894, -0.011555965058505535, 0.1919434368610382, -0.10404445230960846, -0.11855453252792358, 0.15559305250644684, -0.1221269890666008, -0.19534240663051605, -0.37131068110466003, 0.04971756786108017, -0.18903614580631256, -0.24629463255405426, -0.17276740074157715, 0.1288357824087143, -0.2924700379371643, 0.18407471477985382, -0.03957408294081688, 0.03666780889034271, 0.19883111119270325, 0.14388105273246765, 0.012149116024374962, 0.20323610305786133, 0.15118533372879028, 0.1983872801065445, -0.07328572869300842, 0.10089972615242004, 0.336343377828598, -0.11244171112775803, -0.08158330619335175, 0.15535707771778107, 0.23678132891654968, -0.050804924219846725, -0.9614661335945129, -0.2929517924785614, 0.07282450050115585, -0.12896329164505005, -0.052568741142749786, 0.010045322589576244, 0.11339157819747925, 0.0014400186482816935, -0.011787552386522293, 0.18697814643383026, -0.5495918393135071, 0.08399045467376709, 0.015378579497337341, -0.06854009628295898, -0.09616953879594803, 0.06949903070926666, -0.01736946403980255, -0.07040191441774368, 0.1268613189458847, 0.18426258862018585, 0.0013477192260324955, 0.03423565626144409, 0.25729772448539734, 0.22726798057556152, -0.06286101043224335, 0.10534421354532242, 0.12381742894649506, 0.15748915076255798, 0.007991552352905273, -0.06688413769006729, -0.045468054711818695, 0.11952412128448486, -0.21966984868049622, -0.19760073721408844, 0.11599592119455338, 0.28227922320365906, -0.3814166784286499, -0.040225476026535034, -0.08165593445301056, 0.11611409485340118, 0.16282367706298828, -0.10872069001197815, 0.06243147328495979, 0.2243787795305252, 0.1966565102338791, 0.16375012695789337, 0.3043370842933655]], "proj_model/dense_layer1/bias:0": [-0.1659291684627533, -0.7646262645721436, 0.1082763820886612, 0.04711715504527092, -0.018834546208381653, 0.007765584159642458, -0.17901548743247986, -0.014982787892222404, 0.03892744705080986, 0.1302024871110916, -0.004257718566805124, -0.0431082546710968, 0.0, -0.05456288531422615, -0.03321592137217522, 0.029420411214232445, 0.07761578261852264, -0.01328697893768549, 0.0, 0.0, 0.0, 0.053767718374729156, -0.03175036609172821, 0.0041984268464148045, -0.10112910717725754, -0.008075025863945484, 0.006048459094017744, 0.0, 0.0, -0.3072725534439087, 0.07668399810791016, 0.08138168603181839, -0.04401087015867233, -0.04936302453279495, 0.010560194030404091, 0.05880796164274216, -0.058787696063518524, -0.034173835068941116, 0.0, 0.06500383466482162, -0.02770395763218403, -0.03976767137646675, -0.05948767066001892, -0.06627313047647476, -0.00709162000566721, 0.06630678474903107, -0.0846809446811676, 0.049283698201179504, 0.034673888236284256, -0.07267160713672638, -0.008914305828511715, 0.005651247221976519, 0.03906076028943062, 0.03686761111021042, -0.09533368051052094, -0.05210656672716141, -0.010049458593130112, 0.07253622263669968, -0.005730693228542805, -0.027605291455984116, -0.0762351006269455, 0.19631248712539673, -0.023232528939843178, 0.14756497740745544, 0.07248683273792267, 0.0, -0.05548292398452759, 0.12742605805397034, 0.02067200094461441, -0.2170722335577011, -0.050598468631505966, -0.15143990516662598, 0.016780005767941475, 0.06284685432910919, -0.10130173712968826, -0.07640871405601501, 0.08926968276500702, 0.0, -0.009524502791464329, -0.04943593218922615, 0.007795034907758236, -0.25595417618751526, 0.05513621121644974, 0.08938919752836227, 0.008366387337446213, -0.013690059073269367, -0.034395962953567505, -0.047847453504800797, -0.1544545441865921, 0.04028775915503502, 0.04982324317097664, 0.0, 0.05438334122300148, -0.07197822630405426, -0.06571528315544128, -0.10941410809755325, 0.08428507298231125, -0.07525429129600525, 0.0413275882601738, -0.03136876970529556], "proj_model/dense_layer2/kernel:0": [[-0.000667631218675524, -0.2337527871131897, 0.2591099739074707], [-0.5638973116874695, 11.588336944580078, 2.4010910987854004], [-0.21564725041389465, -0.21109452843666077, 0.10964161902666092], [0.2036321461200714, -0.22312840819358826, -0.1260823756456375], [0.21836408972740173, -0.17393580079078674, 0.028997136279940605], [0.17932887375354767, -0.11528076231479645, -0.1632850170135498], [-0.3113546371459961, 0.39141178131103516, 1.3096340894699097], [0.770045280456543, -1.5401936769485474, -1.82366943359375], [-0.1016760766506195, -0.1342347413301468, -0.16069047152996063], [0.7253876328468323, 0.010641646571457386, -2.8184361457824707], [0.10405882447957993, 0.04813225939869881, 0.11898749321699142], [-0.2055330127477646, -0.12518391013145447, -0.17270299792289734], [0.1994645595550537, -0.04181550443172455, 0.054806023836135864], [0.07709319144487381, 0.05550042539834976, 0.16996614634990692], [0.2082682102918625, 0.25610148906707764, 0.05566630885004997], [0.13876231014728546, -0.08622802793979645, -0.1467762291431427], [-0.3946237862110138, 0.014739267528057098, 0.27576950192451477], [0.16460196673870087, -0.14234349131584167, 0.04478207603096962], [0.14565864205360413, -0.15149810910224915, -0.003764212131500244], [0.0009212195873260498, 0.06526780128479004, 0.1461813747882843], [-0.18854652345180511, -0.08755558729171753, 0.0839642882347107], [-0.11799149960279465, -0.12978573143482208, 0.6005366444587708], [0.09121095389127731, -0.0805499330163002, -0.08454053848981857], [0.16009342670440674, 0.03101973421871662, 0.17689114809036255], [0.32394713163375854, 0.15780389308929443, 0.04481791704893112], [0.2951405346393585, -0.18603576719760895, 0.1280514895915985], [0.09438098222017288, -0.1588682383298874, 0.010148738510906696], [0.16562488675117493, 0.06304913759231567, 0.08292654156684875], [-0.05002714693546295, 0.22148683667182922, -0.16604076325893402], [0.8738695383071899, 0.4178977608680725, -0.16680297255516052], [0.13817116618156433, 0.1174154207110405, -0.1297951191663742], [-0.13501237332820892, -0.05394339933991432, -0.25340646505355835], [-0.027206173166632652, -0.02966572716832161, 0.16395288705825806], [-0.053035393357276917, 0.14086803793907166, -0.08982046693563461], [-0.23768644034862518, 0.021456576883792877, 0.027659190818667412], [0.1453903168439865, 0.14786335825920105, 0.515445351600647], [0.16367313265800476, 0.18439698219299316, -0.08906901627779007], [-1.315942406654358, -0.03739257529377937, -0.002166927792131901], [-0.16445916891098022, 0.04802456498146057, -0.1427403688430786], [-0.20732180774211884, -0.022446101531386375, 0.19425366818904877], [-0.10763120651245117, 0.17771576344966888, 0.01870238594710827], [-0.07855834811925888, -0.050895676016807556, 0.13218112289905548], [-0.05824783816933632, -0.10401207953691483, -0.20060959458351135], [0.06817252188920975, -0.18859168887138367, 0.10980614274740219], [-0.14085741341114044, -0.2210903763771057, -0.1901436597108841], [-0.007296121679246426, 0.23786447942256927, 0.20547190308570862], [-0.5821241140365601, 0.11318781971931458, -0.10153648257255554], [0.2114678919315338, -0.03174407780170441, -0.24993552267551422], [0.0883016586303711, 0.07515839487314224, 0.19386596977710724], [0.49085256457328796, -0.14003004133701324, -0.10783974081277847], [0.21262994408607483, 0.17331035435199738, 0.16844488680362701], [0.1680467426776886, 0.13095985352993011, 0.2643595039844513], [-0.03604588285088539, 0.10856565088033676, 0.2782553434371948], [0.029934370890259743, -0.08555316179990768, -0.9800394773483276], [-0.20434054732322693, 0.19070470333099365, 0.31910550594329834], [-0.051614560186862946, 0.011101900599896908, -0.1379578709602356], [-0.21801358461380005, 0.22877836227416992, 0.17550161480903625], [0.12774154543876648, -0.12590771913528442, -0.1607944369316101], [0.005899216514080763, 0.22014065086841583, 0.12221396714448929], [-0.07875944674015045, 0.18474413454532623, -0.1260099709033966], [0.3206513226032257, -0.052694350481033325, 0.10811030864715576], [0.5986557602882385, 0.16779270768165588, 0.010731524787843227], [0.17230379581451416, -0.07492750883102417, 0.15526872873306274], [0.3525022566318512, 0.019471392035484314, -0.32177162170410156], [0.3155011534690857, -0.12471910566091537, 0.1869450807571411], [-0.08097249269485474, 0.034824639558792114, 0.13723346590995789], [0.4614966809749603, 0.22055445611476898, 0.12364266067743301], [0.40811988711357117, 0.027156678959727287, -0.09530375152826309], [0.0720476359128952, 0.17046420276165009, 0.2611254155635834], [1.6226063966751099, -0.016152136027812958, 0.046407852321863174], [0.3412020206451416, -0.14959779381752014, -0.20959793031215668], [0.2949765622615814, 0.05504204332828522, -0.10035982728004456], [-0.14964069426059723, -0.0498017817735672, 0.31332021951675415], [-0.3999215364456177, 0.030721355229616165, 0.15768252313137054], [0.2971037030220032, -0.0709124356508255, -0.07669560611248016], [0.03283962234854698, -0.09421051293611526, -0.20301738381385803], [-0.6188702583312988, -0.06464376300573349, 0.20640434324741364], [0.13461825251579285, 0.14656350016593933, 0.21575039625167847], [0.025387180969119072, -0.0779043510556221, -0.16583803296089172], [0.016330907121300697, -0.06986386328935623, -0.12972645461559296], [0.09864842146635056, 0.2743746042251587, 0.12926305830478668], [0.8393751978874207, 2.024723529815674, 0.22670124471187592], [-0.18859094381332397, 0.28951576352119446, -0.05480748042464256], [-0.5150687098503113, -0.2889878451824188, -0.2523591220378876], [-0.025869330391287804, -0.016551539301872253, 0.3681672215461731], [-0.03020257130265236, -0.08334407210350037, -0.025777459144592285], [-0.18067893385887146, 0.09725623577833176, 0.25920140743255615], [0.24163521826267242, 0.16836686432361603, -0.07500364631414413], [-0.5251092314720154, 0.17479188740253448, 1.7011358737945557], [0.4457671344280243, 0.08168617635965347, -0.4192259609699249], [-1.437528371810913, 0.34171950817108154, 0.40814444422721863], [-0.12173523008823395, -0.042501479387283325, -0.22103795409202576], [0.2504866421222687, 0.14006119966506958, -0.103578120470047], [0.2489543855190277, -0.16000275313854218, -0.12951791286468506], [0.039841197431087494, -0.08350106328725815, -0.1361103355884552], [0.5306618809700012, 0.028752993792295456, -0.02869282104074955], [-0.1651017814874649, 0.007160876411944628, 0.20557324588298798], [0.010806664824485779, 0.07192493230104446, -0.23219187557697296], [-0.29371047019958496, 0.17411468923091888, 0.18766961991786957], [0.25870952010154724, 0.0703098475933075, -0.43407142162323]], "proj_model/dense_layer2/bias:0": [-0.07948023825883865, 0.013819466345012188, 0.0333237498998642]}