{"proj_model/dense_layer1/kernel:0": [[0.06338955461978912, 0.024137672036886215, -0.14285878837108612, -0.025365425273776054, -0.1297852247953415, -0.02712436206638813, -0.26894688606262207, 0.08224297314882278, -0.035605236887931824, -0.09489894658327103, -0.07043687254190445, 0.1489086151123047, -0.059249840676784515, 0.04040798172354698, -0.0764826238155365, 0.1588723063468933, 0.09577953070402145, 0.08811982721090317, 0.014059032313525677, 0.2512163817882538, -0.05815868824720383, -0.16767853498458862, -0.07904434204101562, 0.21080631017684937, -0.15334907174110413, 0.0006388859474100173, -0.25279664993286133, 0.04260038211941719, -0.16878338158130646, 0.06175561621785164, 0.08172274380922318, -0.21574681997299194, 0.22339104115962982, 0.10123786330223083, -0.017328161746263504, 0.11141494661569595, 0.13403092324733734, 0.21606896817684174, 0.08612128347158432, 0.18698911368846893, -0.1931845247745514, 0.11750113219022751, -0.03300563246011734, 0.11242979019880295, -0.200079083442688, -0.04631105065345764, -0.09818519651889801, -0.23562118411064148, 0.12128866463899612, 0.00016188036534003913, 0.21162064373493195, 0.08539889007806778, -0.2287314087152481, 0.09434239566326141, 0.12101630121469498, 0.0036048293113708496, 0.08496154099702835, 0.07638914883136749, 0.21760016679763794, 0.10682989656925201, 0.03309525549411774, -0.10518908500671387, 0.20875008404254913, -0.05741707980632782, -0.1418839544057846, -0.234686940908432, 0.1155509501695633, 0.1042967438697815, 0.07732396572828293, 0.16914168000221252, -0.006031006574630737, 0.1018454059958458, 0.20815850794315338, -0.1157161295413971, -0.11284814029932022, 0.1381296068429947, -0.26330751180648804, -0.06804163008928299, -0.19128704071044922, -0.11580969393253326, -0.04432938992977142, -0.0898391604423523, -0.004213608801364899, -0.060337916016578674, 0.019147593528032303, -0.04258273169398308, 0.09680081903934479, -0.2154570072889328, -0.15137338638305664, 0.2199847400188446, 0.08391289412975311, 0.018604502081871033, 0.021042894572019577, 0.2574329078197479, -0.2622968852519989, -0.06412126868963242, 0.07953783869743347, -0.09196053445339203, 0.19731102883815765, -0.21025821566581726], [0.05945727229118347, -0.07972756028175354, 0.10121741890907288, 0.04286247864365578, -0.10378096997737885, 0.16859890520572662, -0.14237333834171295, 0.014215552248060703, 0.18013937771320343, 0.23028548061847687, 0.2419232577085495, -0.08698849380016327, -0.09226249158382416, 0.0701909139752388, 0.11429110914468765, 0.17641408741474152, 0.13585811853408813, 0.1255270540714264, -0.24586305022239685, 0.19809377193450928, 0.03193453699350357, 0.10204341262578964, 0.17939257621765137, -0.2285582721233368, -0.0589701384305954, -0.2933451235294342, 0.19014990329742432, 0.053471021354198456, -0.008034656755626202, -0.12766605615615845, 0.259015291929245, 0.17824803292751312, 0.19338864088058472, 0.09345687925815582, -0.04911130666732788, 0.11208655685186386, -0.22444821894168854, -0.16018567979335785, -0.016998467966914177, -0.2172171026468277, 0.07489237189292908, 0.17471587657928467, 0.07348477095365524, -0.16946393251419067, -0.10764586925506592, 0.25543075799942017, -0.23494374752044678, 0.03634895384311676, 0.09303905069828033, -0.03237610310316086, 0.10628672689199448, 0.07640056312084198, 0.1510876566171646, 0.05072367191314697, 0.18337765336036682, -0.20575138926506042, 0.14634279906749725, -0.13100512325763702, 0.08744163066148758, 0.15688258409500122, 0.13373823463916779, -0.13695207238197327, -0.2013736367225647, 0.07085440307855606, -0.002524823881685734, -0.22317281365394592, 0.11701510846614838, 0.06806407868862152, -0.0021977508440613747, 0.1919422447681427, -0.027818724513053894, 0.04975218325853348, -0.10650410503149033, 0.0295241866260767, 0.2844238877296448, -0.18144626915454865, -0.11275685578584671, -0.05882525071501732, -0.22856488823890686, -0.20362630486488342, 0.003622938646003604, 0.1805773228406906, 0.20574864745140076, -0.11610693484544754, 0.18335804343223572, -0.027243301272392273, 0.16830871999263763, 0.08563797175884247, 0.011360570788383484, 0.012975323013961315, 0.11226696521043777, -0.23364345729351044, -0.08968737721443176, 0.2866363525390625, -0.019313571974635124, 0.0009983846684917808, -0.07989796251058578, -0.11869527399539948, 0.0713961198925972, -0.1744159758090973], [0.021767791360616684, 0.10879714787006378, -0.06562263518571854, 0.12868018448352814, -0.021141916513442993, -0.14844149351119995, 0.021706169471144676, 0.18083684146404266, -0.009473633021116257, 0.06833481043577194, -0.19047291576862335, 0.11639457941055298, 0.15643157064914703, -0.06354433298110962, -0.16122747957706451, 0.010763158090412617, 0.12524133920669556, 0.023754891008138657, -0.06060303375124931, -0.041422538459300995, 0.11628466099500656, 0.10485359281301498, -0.0576913096010685, -0.012419000267982483, -0.135344460606575, -0.09101955592632294, 0.13977555930614471, 0.17461130023002625, 0.16862645745277405, 0.15013571083545685, -0.06643509864807129, 0.11233379691839218, -0.00034852049429900944, 0.07084310054779053, 0.1504131257534027, -0.016612881794571877, -0.2743569612503052, 0.19923847913742065, 0.15195952355861664, -0.17740659415721893, 0.09820545464754105, 0.044754210859537125, -0.01639159582555294, -0.004388920031487942, -0.0023405984975397587, 0.15838579833507538, -0.10760380327701569, 0.09383071959018707, -0.01540099736303091, 0.1005837470293045, 0.08189929276704788, -0.06975940614938736, 0.015344684012234211, 0.12952080368995667, -0.010438971221446991, 0.2150806337594986, 0.07462643086910248, -0.10485316067934036, 0.16119951009750366, -0.01445091888308525, -0.10526945441961288, -0.16271239519119263, 0.011896267533302307, 0.14461125433444977, -0.04694437235593796, -0.025847062468528748, 0.15891017019748688, -0.034460268914699554, -0.17950114607810974, -0.10353966057300568, -0.029717594385147095, -0.08583852648735046, 0.24639591574668884, -0.15771062672138214, 0.13613773882389069, 0.14333635568618774, 0.06826088577508926, -0.13533088564872742, 0.036621689796447754, -0.18052005767822266, -0.25480955839157104, 0.09432020783424377, 0.11090052872896194, -0.2757623493671417, 0.15626868605613708, -0.11890068650245667, 0.23171763122081757, -0.14345331490039825, -0.0082893967628479, 0.07890620082616806, 0.1022181510925293, 0.05375133454799652, 0.1637939065694809, 0.20936982333660126, -0.16752195358276367, 0.3090150058269501, -0.16204676032066345, 0.0456763356924057, 0.13576307892799377, 0.17363564670085907], [-0.07300278544425964, -0.023517604917287827, -0.09616859257221222, -0.15296760201454163, -0.19519804418087006, -0.3866327106952667, 0.12407553195953369, -0.15726982057094574, 0.242004856467247, 0.06320413947105408, -0.0017979698022827506, -0.13566696643829346, 0.04465097934007645, -0.1944923996925354, -0.10078300535678864, 0.07210732251405716, -0.06501201540231705, -0.3822696805000305, -0.09068682044744492, 0.16196715831756592, 0.18591518700122833, -0.08131454139947891, -0.08355024456977844, -0.09072385728359222, 0.12308169901371002, 0.03380187228322029, -0.24324564635753632, -0.05853375047445297, 0.017874248325824738, 0.07635018974542618, -0.12379076331853867, 0.16716095805168152, 0.02658046782016754, 0.00555895920842886, -0.02993020974099636, 0.022988205775618553, 0.05800184607505798, 0.23437175154685974, -0.11376014351844788, 0.2209407240152359, -0.19704437255859375, -0.2379394918680191, 0.2323591113090515, -0.08881021291017532, -0.1713884323835373, 0.25954774022102356, 0.17294956743717194, -0.23736746609210968, 0.0009557006414979696, -0.12156829237937927, 0.08590710163116455, 0.07611116766929626, 0.19116590917110443, 0.16827267408370972, 0.16716268658638, -0.2115894854068756, -0.32350409030914307, -0.056891512125730515, 0.17977701127529144, -0.01265639252960682, 0.0054071941412985325, -0.13822124898433685, -0.21671625971794128, 0.13074833154678345, -0.2132710963487625, -0.0003194659948348999, -0.13200126588344574, 0.24894186854362488, 0.1612938940525055, 0.08724061399698257, -0.21395450830459595, 0.14210964739322662, -0.21239498257637024, -0.04173656180500984, -0.08454300463199615, 0.020876923575997353, 0.01614714413881302, 0.12295642495155334, 0.00483873812481761, -0.05417551100254059, 0.10089510679244995, 0.019044773653149605, 0.18069718778133392, -0.16102902591228485, -0.08501831442117691, 0.1919902116060257, 0.07093724608421326, -0.10431236028671265, -0.18057501316070557, 0.10521777719259262, 0.19367273151874542, 0.06506340205669403, -0.05836993083357811, -0.022819235920906067, 0.12636798620224, 0.07386162132024765, 0.09783919155597687, -0.18329019844532013, -0.04989345371723175, 0.018008172512054443], [0.289129376411438, 0.12356960773468018, -0.18545274436473846, 0.09614353626966476, -0.09861993789672852, -0.18325363099575043, 0.11788558959960938, 0.06783965229988098, 0.048645999282598495, 0.08194725960493088, 0.15280403196811676, -0.10672996938228607, -0.1196514293551445, 0.11116649210453033, 0.06109221652150154, 0.19341064989566803, 0.09213793277740479, 0.08161082118749619, 0.1204991489648819, 0.09401885420084, -0.09995467960834503, 0.10021385550498962, -0.25255799293518066, 0.02233654074370861, -0.14055833220481873, 0.31926730275154114, -0.03738926351070404, -0.02822772040963173, 0.2878667414188385, -0.15729577839374542, 0.17679667472839355, 0.27024945616722107, 0.20658224821090698, -0.012352886609733105, 0.2931225299835205, -0.16112761199474335, -0.05396923050284386, 0.092186339199543, -0.16829954087734222, -0.28043052554130554, 0.04962531477212906, -0.0746195837855339, -0.15227262675762177, -0.0942315086722374, -0.0004457127652131021, 0.0622805655002594, 0.33034032583236694, -0.20024126768112183, -0.39420533180236816, -0.16343891620635986, 0.3456505239009857, 0.3217483460903168, -0.06695021688938141, -0.26763710379600525, -0.21456818282604218, -0.09408478438854218, 0.0975802019238472, 0.340969443321228, -0.09284688532352448, -0.019486309960484505, 0.010741005651652813, -0.1889926791191101, -0.13019181787967682, 0.05884546414017677, 0.284417062997818, -0.02066214382648468, 0.26214414834976196, 0.08276767283678055, 0.019691621884703636, 0.10710903257131577, -0.08204193413257599, -0.21056737005710602, 0.27413520216941833, 0.08263903111219406, 0.1896531730890274, 0.19885271787643433, 0.3070383071899414, 0.1682262122631073, 0.512457549571991, 0.118209108710289, -0.24887780845165253, 0.002542492002248764, 0.22908243536949158, 0.18125106394290924, 0.06694440543651581, 0.044090643525123596, 0.07746344804763794, 0.045682743191719055, -0.2376244217157364, -0.05401384457945824, -0.09583871066570282, -0.12696880102157593, 0.16704970598220825, -0.07902871817350388, 0.025171801447868347, 0.1900777965784073, -0.003820280311629176, -0.1296979784965515, 0.13169607520103455, -0.13297659158706665], [-0.23220564424991608, 0.1831691563129425, 0.27882787585258484, 0.22921165823936462, 0.10304613411426544, 0.10282935202121735, -0.08279383182525635, -0.13679908215999603, -0.2240089327096939, -0.03190891072154045, 0.2445317655801773, -0.052500106394290924, 0.12502330541610718, 0.13963568210601807, -0.10997821390628815, 0.10216189920902252, 0.004984589759260416, -0.11070461571216583, 0.05046485364437103, -0.09791943430900574, -0.5007737874984741, -0.15157677233219147, 0.23901572823524475, 0.01892363838851452, 0.025010716170072556, 0.03763744980096817, 0.013746917247772217, 0.14869949221611023, 0.1901361495256424, 0.21495097875595093, 0.07914100587368011, 0.22899571061134338, 0.06287176162004471, 0.009562438353896141, -0.027840111404657364, 0.1816406399011612, 0.16095919907093048, -0.22045846283435822, 0.10865864902734756, 0.19347608089447021, -0.2227809876203537, -0.3435172140598297, -0.15692642331123352, 0.1270952820777893, 0.18557099997997284, 0.04793373495340347, 0.03989502042531967, -0.17783969640731812, 0.14564329385757446, 0.03804904967546463, 0.23612742125988007, -0.1215512752532959, 0.02290199138224125, 0.017328064888715744, -0.08500126004219055, -0.07601228356361389, 0.015150325372815132, 0.026699375361204147, 0.08954400569200516, -0.1507551372051239, 0.25138965249061584, -0.10027092695236206, -0.19449269771575928, -0.18745039403438568, 0.1921968162059784, -0.15808427333831787, -0.1238689124584198, 0.08062470704317093, -0.20650140941143036, 0.2223188281059265, -0.09750491380691528, 0.16748175024986267, -0.04919882491230965, -0.19042137265205383, -0.07529551535844803, 0.0818527489900589, -0.016552895307540894, 0.25249916315078735, -0.006032771896570921, 0.048037752509117126, 0.047053225338459015, 0.08771384507417679, 0.06975755840539932, 0.13510100543498993, -0.1139986589550972, 0.26561304926872253, 0.024454385042190552, -0.03400565683841705, -0.047001972794532776, 0.03855114430189133, 0.25289231538772583, -0.11289359629154205, -0.18762952089309692, 0.21826665103435516, 0.1039968878030777, -0.0906962975859642, 0.2271365523338318, -0.053770437836647034, -0.09321551024913788, 0.0703374370932579]], "proj_model/dense_layer1/bias:0": [0.014766060747206211, 0.041515007615089417, -0.029600193724036217, 0.04710397869348526, 0.0, 0.048063598573207855, -0.05343734845519066, -0.03199054300785065, 0.020616035908460617, 0.04305519536137581, 0.014326921664178371, -0.01603631302714348, 0.03341064974665642, -0.005133572965860367, -0.04107872396707535, -0.013189177960157394, -0.024205872789025307, 0.03109022229909897, -0.026529280468821526, 0.03886932134628296, 0.058699361979961395, -0.0831107571721077, 0.1399155706167221, -0.0060009462758898735, -0.022179681807756424, -0.0301833413541317, -0.02136436477303505, 0.04240880534052849, -0.00343378446996212, 0.038935475051403046, 0.02581469528377056, 0.016193298622965813, 0.03376723453402519, 0.020404145121574402, 0.04406532272696495, 0.016585707664489746, -0.053688906133174896, 0.020491598173975945, 0.042114242911338806, 0.025481296703219414, -0.023710109293460846, 0.07145090401172638, -0.008982096798717976, -0.020718233659863472, 0.04854358360171318, 0.026005035266280174, -0.004897193983197212, 0.0, 0.0722099021077156, -0.03929319605231285, 0.024982430040836334, 0.057527244091033936, -0.04841195419430733, 0.14938555657863617, 0.03480008244514465, 0.0, 0.021541383117437363, -0.055146876722574234, -0.00546841649338603, -0.03268099203705788, 0.03557882457971573, 0.0, 0.0, -0.03444816172122955, 0.08391035348176956, 0.0, 0.03163336589932442, 0.03310656175017357, -0.004421282559633255, 0.03603485971689224, 0.0, 0.06378774344921112, 0.01334860548377037, -0.023595668375492096, 0.04099537059664726, 0.027896923944354057, -0.017018606886267662, 0.03989729285240173, -0.06352516263723373, 0.0, -0.049972426146268845, 0.032647475600242615, -0.006123814731836319, -0.04871685802936554, 0.04359236732125282, 0.0519031286239624, 0.02597927674651146, 0.0, 0.0, 0.026197543367743492, 0.03660896420478821, 0.0, -0.06689844280481339, 0.0525883287191391, -0.04134918749332428, 0.06329656392335892, 3.578187170205638e-05, 0.0, 0.03234453871846199, -0.01135871559381485], "proj_model/dense_layer2/kernel:0": [[-0.11688261479139328, 0.35351255536079407, -0.03202822804450989], [-0.07729373127222061, 0.2455354779958725, 0.13265803456306458], [-0.2342696487903595, -0.0018476095283403993, -0.20768648386001587], [-0.15472470223903656, 0.1544245183467865, -0.08782068639993668], [0.05449029803276062, -0.10475341975688934, 0.01684582233428955], [-0.142824187874794, -0.25360560417175293, 0.2966373562812805], [-0.19053857028484344, -0.02860165201127529, -0.04241955280303955], [-0.16370387375354767, 0.010107947513461113, -0.2164061814546585], [0.2608310878276825, 0.1015993058681488, -0.13145917654037476], [-0.22662028670310974, 0.30489906668663025, 0.20941974222660065], [-0.042866721749305725, -0.0212889201939106, 0.171322301030159], [0.14396195113658905, -0.16473717987537384, -0.1557924747467041], [-0.03229496255517006, 0.0023906882852315903, 0.06394939124584198], [-0.14585955440998077, 0.09099820256233215, -0.09183206409215927], [0.19536902010440826, -0.1747926026582718, 0.16688252985477448], [0.1325676143169403, 0.12936590611934662, -0.10542662441730499], [-0.14374470710754395, -0.16013203561306, 0.12265653163194656], [0.1755857616662979, 0.0940418615937233, -0.04632863029837608], [-0.04406245797872543, -0.17320464551448822, -0.2030726969242096], [-0.061954278498888016, 0.2057257741689682, 0.1589818000793457], [0.19812162220478058, -0.15469801425933838, -0.2681896686553955], [0.09622950106859207, -0.06794771552085876, 0.11617828160524368], [-0.04991552233695984, -0.16980697214603424, 0.1405028998851776], [0.1294548362493515, -0.12594759464263916, -0.13271620869636536], [-0.07192672789096832, 0.05860947445034981, 0.12901189923286438], [0.3213973641395569, -0.10802292823791504, 0.2515884339809418], [0.10522916913032532, -0.1633637249469757, -0.14929842948913574], [-0.05431504175066948, 0.12777772545814514, 0.025125892832875252], [0.19802500307559967, 0.19739001989364624, -0.09015348553657532], [-0.03547056019306183, -0.10013792663812637, 0.12830549478530884], [0.12511281669139862, 0.11845087260007858, 0.18606862425804138], [0.24522212147712708, 0.09760183095932007, 0.1404440551996231], [0.030022360384464264, 0.15290889143943787, 0.21259330213069916], [0.1522940993309021, -0.034002676606178284, 0.253585547208786], [0.06843771785497665, 0.3178074359893799, 0.17086368799209595], [-0.126164972782135, -0.2208111584186554, -0.0036581195890903473], [-0.19053968787193298, 0.10446587204933167, -0.14841942489147186], [0.08013489097356796, 0.049861256033182144, -0.02492564171552658], [-0.12761914730072021, -0.09637943655252457, 0.16265426576137543], [0.3220435380935669, -0.22352345287799835, -0.04107976704835892], [0.23803336918354034, -0.10398103296756744, -0.05233314260840416], [0.38805484771728516, -0.08869556337594986, -0.2342587113380432], [0.013292010873556137, -0.1629713624715805, -0.16377907991409302], [0.187392920255661, -0.10621609538793564, -0.21678930521011353], [-0.10702367126941681, 0.07991985231637955, 0.03417978063225746], [0.13600961863994598, 0.10557926446199417, 0.12851689755916595], [0.21956835687160492, 0.2140800952911377, 0.09843076020479202], [0.16923075914382935, 0.18272972106933594, 0.078331857919693], [0.008960869163274765, -0.27002015709877014, 0.25810667872428894], [-0.20521730184555054, -0.011476178653538227, -0.18594057857990265], [0.17470042407512665, 0.2790427505970001, -0.022597530856728554], [-0.21168754994869232, 0.38015449047088623, 0.24356181919574738], [0.17697152495384216, -0.1414303332567215, -0.0044791423715651035], [0.3253153860569, -0.28395357728004456, -0.19482974708080292], [0.10191886126995087, -0.11729563772678375, 0.005694384220987558], [0.007561057806015015, -0.07392661273479462, -0.08530960977077484], [0.1596841961145401, 0.13067542016506195, 0.009639722295105457], [0.28570079803466797, -0.041520342230796814, 0.2524697780609131], [0.19045600295066833, 0.14273083209991455, -0.15893705189228058], [0.05242740735411644, -0.12269213795661926, -0.16150499880313873], [0.0008690479444339871, 0.09533096104860306, 0.21089090406894684], [-0.13389068841934204, -0.020020976662635803, -0.16232338547706604], [0.1622537076473236, 0.053103089332580566, -0.19845910370349884], [-0.0739160031080246, -0.027047311887145042, -0.11685240268707275], [-0.1621231585741043, 0.19855858385562897, 0.24391095340251923], [-0.012736350297927856, -0.1442510187625885, -0.13499614596366882], [0.12335578352212906, 0.32301804423332214, -0.1843634992837906], [0.10021885484457016, 0.2648736536502838, 0.1197633147239685], [0.24223724007606506, 0.06874776631593704, -0.20010092854499817], [-0.03222687542438507, 0.09218678623437881, 0.2641754448413849], [0.11118841171264648, 0.20600023865699768, -0.005438506603240967], [0.06229010969400406, -0.32691994309425354, -0.005101500544697046], [0.1310814470052719, 0.140620619058609, 0.14820128679275513], [-0.02653900906443596, 0.059234313666820526, -0.14315183460712433], [-0.13718844950199127, 0.2745702862739563, 0.1529615819454193], [0.21238739788532257, 0.296725869178772, 0.17805197834968567], [0.4335779845714569, 0.15299880504608154, 0.07281308621168137], [-0.15535204112529755, -0.006264426279813051, 0.12490560859441757], [0.16053448617458344, 0.3786737620830536, 0.5195081233978271], [0.12516075372695923, 0.01379704475402832, 0.034486860036849976], [-0.04176129773259163, 0.01630539819598198, -0.1004711240530014], [0.09618068486452103, 0.23867613077163696, -0.01296689547598362], [0.08446063846349716, 0.15444941818714142, -0.11168159544467926], [0.1393698900938034, -0.09936495125293732, -0.04152084141969681], [0.03496875613927841, 0.31305697560310364, -0.026501208543777466], [-0.01530339103192091, 0.10475871711969376, 0.11678728461265564], [0.18517062067985535, 0.10761513561010361, 0.22894692420959473], [-0.05546915531158447, 0.000672563910484314, -0.12507931888103485], [-0.17742547392845154, -0.025158807635307312, 0.17464715242385864], [0.11846747994422913, 0.029380474239587784, 0.1709403693675995], [-0.1291642040014267, 0.05118946358561516, 0.07083477824926376], [-0.06299500167369843, 0.07233825325965881, 0.24047031998634338], [-0.13604077696800232, -0.07080652564764023, 0.1528504490852356], [-0.08267074823379517, 0.1487945318222046, -0.046679966151714325], [-0.0693497434258461, -0.034989628940820694, -0.15084394812583923], [0.05619300901889801, 0.3373848497867584, -0.03347698599100113], [-0.1704501211643219, -0.05892006680369377, -0.023495923727750778], [-0.12264039367437363, 0.02554488182067871, -0.05471165478229523], [0.04214571788907051, 0.14883649349212646, 0.2404247373342514], [0.009791182354092598, -0.06018368899822235, 0.0727904736995697]], "proj_model/dense_layer2/bias:0": [-0.009991424158215523, 0.03847057372331619, 0.034479714930057526]}